<?xml version="1.0"?>
<opencv_storage>
<stage14>
  <maxWeakCount>5</maxWeakCount>
  <stageThreshold>-9.1151154041290283e-01</stageThreshold>
  <weakClassifiers>
    <_>
      <internalNodes>
        0 -1 72247 1.8105071038007736e-02</internalNodes>
      <leafValues>
        -7.2916668653488159e-01 6.7307692766189575e-01</leafValues></_>
    <_>
      <internalNodes>
        0 -1 22459 -2.5921459382516332e-05</internalNodes>
      <leafValues>
        6.9856154918670654e-01 -6.7329645156860352e-01</leafValues></_>
    <_>
      <internalNodes>
        0 -1 3210 -1.1832538060843945e-02</internalNodes>
      <leafValues>
        7.0129930973052979e-01 -6.0604619979858398e-01</leafValues></_>
    <_>
      <internalNodes>
        0 -1 46677 8.8168736547231674e-03</internalNodes>
      <leafValues>
        -5.4288339614868164e-01 7.0785784721374512e-01</leafValues></_>
    <_>
      <internalNodes>
        0 -1 39623 -2.4924303870648146e-03</internalNodes>
      <leafValues>
        -9.7429692745208740e-01 3.8913995027542114e-01</leafValues></_></weakClassifiers></stage14>
</opencv_storage>
